weights CONV2D
-6.987211108207702637e-02,7.704858183860778809e-01
-2.606938481330871582e-01,-5.601817965507507324e-01
-1.584955751895904541e-01,1.767348200082778931e-01
-5.826351642608642578e-01,3.569037020206451416e-01
bias CONV2D
2.280333265662193298e-02
1.847366429865360260e-02
weights LIN
2.327236980199813843e-01
2.087969928979873657e-01
3.706074655055999756e-01
-7.376925647258758545e-02
-2.226428836584091187e-01
-3.825927674770355225e-01
-3.585980534553527832e-01
1.678590774536132812e-01
-2.394219785928726196e-01
-9.375773370265960693e-02
-1.895513087511062622e-01
3.213946521282196045e-01
1.201111450791358948e-01
1.577200740575790405e-01
7.579561322927474976e-02
2.512568235397338867e-01
6.823635101318359375e-02
1.397721916437149048e-01
1.046487689018249512e-01
-1.068464368581771851e-01
-1.269632484763860703e-02
5.298678204417228699e-02
5.890173092484474182e-02
1.503768935799598694e-02
-2.308282256126403809e-01
2.553465962409973145e-01
3.379567563533782959e-01
1.294409334659576416e-01
1.055562719702720642e-01
-9.639839641749858856e-03
7.475257664918899536e-02
2.238186597824096680e-01
3.663398697972297668e-02
-2.704966068267822266e-01
2.115096151828765869e-01
-7.907107472419738770e-02
-2.213435322046279907e-01
4.420493543148040771e-02
3.859014483168721199e-03
-2.861200459301471710e-02
-2.326078712940216064e-01
3.430143743753433228e-02
3.885638341307640076e-02
-3.249729573726654053e-01
-2.590252459049224854e-01
1.376385539770126343e-01
1.364748477935791016e-01
-1.283955276012420654e-01
-2.425590306520462036e-01
1.423193812370300293e-01
-2.741200029850006104e-01
-1.685633957386016846e-01
1.450076606124639511e-02
-1.465229690074920654e-01
1.186733618378639221e-01
1.788703501224517822e-01
1.912219822406768799e-01
2.631140053272247314e-01
3.387853130698204041e-02
3.058470189571380615e-01
-1.107087507843971252e-01
-5.023282393813133240e-02
2.500558495521545410e-01
3.530175238847732544e-02
-6.699341535568237305e-02
2.917789816856384277e-01
1.349152158945798874e-02
-1.538601815700531006e-01
1.464922428131103516e-01
-2.243659347295761108e-01
1.015962064266204834e-01
3.893310129642486572e-01
3.776631876826286316e-02
1.748490780591964722e-01
1.350629981607198715e-02
1.187232807278633118e-01
-2.414634674787521362e-01
-7.282128930091857910e-02
-1.291866153478622437e-01
7.448636740446090698e-02
2.843500375747680664e-01
-9.647084400057792664e-03
-1.283055543899536133e-01
1.716292500495910645e-01
-6.520944833755493164e-02
-1.892165094614028931e-01
-3.315947055816650391e-01
5.147768184542655945e-02
-1.627369523048400879e-01
2.841368913650512695e-01
2.255979329347610474e-01
1.098504886031150818e-01
2.209802418947219849e-01
1.161496937274932861e-01
1.392367184162139893e-01
5.019096285104751587e-02
2.291795909404754639e-01
1.908989250659942627e-01
4.310208559036254883e-02
4.703029990196228027e-02
bias LIN
-1.047764532268047333e-02
