weights CONV2D
-6.811563670635223389e-02,7.702552080154418945e-01
-2.598344087600708008e-01,-5.580534934997558594e-01
-1.585103571414947510e-01,1.770147830247879028e-01
-5.825883150100708008e-01,3.565516471862792969e-01
bias CONV2D
2.266928181052207947e-02
1.849038898944854736e-02
weights LIN
2.345458865165710449e-01
2.095419168472290039e-01
3.660477697849273682e-01
-7.201581448316574097e-02
-2.242261320352554321e-01
-3.739039301872253418e-01
-3.524522483348846436e-01
1.696189939975738525e-01
-2.412460893392562866e-01
-9.601294249296188354e-02
-1.909971237182617188e-01
3.154485523700714111e-01
1.074724942445755005e-01
1.558403521776199341e-01
7.583081722259521484e-02
2.534093558788299561e-01
6.607448309659957886e-02
1.341305971145629883e-01
9.944111108779907227e-02
-1.036490276455879211e-01
-1.234159991145133972e-02
5.400293320417404175e-02
5.590869858860969543e-02
1.607154123485088348e-02
-2.325728833675384521e-01
2.577840685844421387e-01
3.337651789188385010e-01
1.258179545402526855e-01
1.040743887424468994e-01
-1.057290565222501755e-02
7.705024629831314087e-02
2.244549542665481567e-01
3.983634710311889648e-02
-2.667525410652160645e-01
2.119828462600708008e-01
-8.294876664876937866e-02
-2.209835499525070190e-01
4.047777503728866577e-02
1.452366355806589127e-03
-2.347713150084018707e-02
-2.340285629034042358e-01
3.188689798116683960e-02
5.005596578121185303e-02
-3.194827735424041748e-01
-2.558798491954803467e-01
1.183933317661285400e-01
1.357292979955673218e-01
-1.308456659317016602e-01
-2.433055341243743896e-01
1.390199512243270874e-01
-2.655061483383178711e-01
-1.698659956455230713e-01
1.310835033655166626e-02
-1.476340293884277344e-01
1.227461323142051697e-01
1.804140806198120117e-01
1.887747496366500854e-01
2.640143930912017822e-01
3.053562343120574951e-02
3.024252057075500488e-01
-1.106510087847709656e-01
-4.640686139464378357e-02
2.445460259914398193e-01
3.298818320035934448e-02
-6.963843852281570435e-02
2.873852849006652832e-01
1.072882395237684250e-02
-1.459918469190597534e-01
1.470325291156768799e-01
-3.331210911273956299e-01
1.011932119727134705e-01
3.867868781089782715e-01
4.231054335832595825e-02
1.724182218313217163e-01
1.346880756318569183e-02
1.158119589090347290e-01
-2.363454550504684448e-01
-6.653176993131637573e-02
-1.313617676496505737e-01
7.396590709686279297e-02
2.762693166732788086e-01
-6.384640932083129883e-03
-1.296447068452835083e-01
1.642865389585494995e-01
-6.686812639236450195e-02
-1.857475191354751587e-01
-3.252596557140350342e-01
6.039104238152503967e-02
-1.627095639705657959e-01
2.805206477642059326e-01
2.263756245374679565e-01
1.499416083097457886e-01
2.247647494077682495e-01
1.167837530374526978e-01
1.268825978040695190e-01
5.031833052635192871e-02
2.314614355564117432e-01
1.859698593616485596e-01
4.151406511664390564e-02
4.828747361898422241e-02
bias LIN
-1.133805420249700546e-02
